digraph Tree {
node [shape=box, style="filled, rounded", color="black", fontname=helvetica] ;
edge [fontname=helvetica] ;
0 [label="num_major_vessels <= -0.19\ngini = 0.49\nsamples = 100.0%\nvalue = [0.43, 0.57]\nclass = disease", fillcolor="#399de53f"] ;
1 [label="chest_pain_type_typical angina <= 0.5\n0.33\n58.2%\n[0.21, 0.79]\ndisease", fillcolor="#399de5bb"] ;
0 -> 1 [labeldistance=2.5, labelangle=45, headlabel="True"] ;
2 [label="st_slope_flat <= 0.5\n0.17\n36.1%\n[0.09, 0.91]\ndisease", fillcolor="#399de5e5"] ;
1 -> 2 ;
3 [label="max_heart_rate_achieved <= 0.81\n0.07\n23.4%\n[0.04, 0.96]\ndisease", fillcolor="#399de5f6"] ;
2 -> 3 ;
4 [label="0.14\n12.0%\n[0.07, 0.93]\ndisease", fillcolor="#399de5eb"] ;
3 -> 4 ;
5 [label="0.0\n11.4%\n[0.0, 1.0]\ndisease", fillcolor="#399de5ff"] ;
3 -> 5 ;
6 [label="sex_male <= 0.5\n0.33\n12.7%\n[0.21, 0.79]\ndisease", fillcolor="#399de5bc"] ;
2 -> 6 ;
7 [label="0.0\n5.1%\n[0.0, 1.0]\ndisease", fillcolor="#399de5ff"] ;
6 -> 7 ;
8 [label="0.44\n7.6%\n[0.33, 0.67]\ndisease", fillcolor="#399de57f"] ;
6 -> 8 ;
9 [label="thalassemia_fixed defect <= 0.5\n0.48\n22.2%\n[0.41, 0.59]\ndisease", fillcolor="#399de54d"] ;
1 -> 9 ;
10 [label="exercise_induced_angina_yes <= 0.5\n0.46\n12.0%\n[0.64, 0.36]\nno disease", fillcolor="#e5813971"] ;
9 -> 10 ;
11 [label="0.4\n4.4%\n[0.27, 0.73]\ndisease", fillcolor="#399de59f"] ;
10 -> 11 ;
12 [label="0.21\n7.6%\n[0.88, 0.12]\nno disease", fillcolor="#e58139dd"] ;
10 -> 12 ;
13 [label="st_depression <= -0.69\n0.23\n10.1%\n[0.13, 0.87]\ndisease", fillcolor="#399de5d9"] ;
9 -> 13 ;
14 [label="0.36\n6.3%\n[0.23, 0.77]\ndisease", fillcolor="#399de5b3"] ;
13 -> 14 ;
15 [label="0.0\n3.8%\n[0.0, 1.0]\ndisease", fillcolor="#399de5ff"] ;
13 -> 15 ;
16 [label="chest_pain_type_typical angina <= 0.5\n0.41\n41.8%\n[0.71, 0.29]\nno disease", fillcolor="#e5813999"] ;
0 -> 16 [labeldistance=2.5, labelangle=-45, headlabel="False"] ;
17 [label="num_major_vessels <= 0.8\n0.43\n15.8%\n[0.32, 0.68]\ndisease", fillcolor="#399de589"] ;
16 -> 17 ;
18 [label="thalassemia_reversable defect <= 0.5\n0.33\n10.8%\n[0.21, 0.79]\ndisease", fillcolor="#399de5bc"] ;
17 -> 18 ;
19 [label="0.19\n8.2%\n[0.11, 0.89]\ndisease", fillcolor="#399de5e1"] ;
18 -> 19 ;
20 [label="0.48\n2.5%\n[0.6, 0.4]\nno disease", fillcolor="#e5813955"] ;
18 -> 20 ;
21 [label="max_heart_rate_achieved <= 0.76\n0.5\n5.1%\n[0.47, 0.53]\ndisease", fillcolor="#399de51c"] ;
17 -> 21 ;
22 [label="0.47\n3.8%\n[0.62, 0.38]\nno disease", fillcolor="#e5813960"] ;
21 -> 22 ;
23 [label="0.0\n1.3%\n[0.0, 1.0]\ndisease", fillcolor="#399de5ff"] ;
21 -> 23 ;
24 [label="rest_ecg_normal <= 0.5\n0.06\n25.9%\n[0.97, 0.03]\nno disease", fillcolor="#e58139f7"] ;
16 -> 24 ;
25 [label="age <= -0.09\n0.15\n8.9%\n[0.92, 0.08]\nno disease", fillcolor="#e58139e9"] ;
24 -> 25 ;
26 [label="0.38\n1.9%\n[0.75, 0.25]\nno disease", fillcolor="#e58139aa"] ;
25 -> 26 ;
27 [label="0.0\n7.0%\n[1.0, 0.0]\nno disease", fillcolor="#e58139ff"] ;
25 -> 27 ;
28 [label="0.0\n17.1%\n[1.0, 0.0]\nno disease", fillcolor="#e58139ff"] ;
24 -> 28 ;
}